<?xml version="1.0"?>
<opencv_storage>
<stage17>
  <maxWeakCount>100</maxWeakCount>
  <stageThreshold>-2.9512530565261841e-01</stageThreshold>
  <weakClassifiers>
    <_>
      <internalNodes>
        0 -1 51405 -1.7137180839199573e-04</internalNodes>
      <leafValues>
        -2.5842696428298950e-01 -6.4935065805912018e-02</leafValues></_>
    <_>
      <internalNodes>
        0 -1 91105 -1.8950047669932246e-03</internalNodes>
      <leafValues>
        -1.4312583208084106e-01 4.0257018059492111e-02</leafValues></_>
    <_>
      <internalNodes>
        0 -1 67754 -5.0370860844850540e-03</internalNodes>
      <leafValues>
        1.1163578182458878e-01 -4.1496500372886658e-02</leafValues></_>
    <_>
      <internalNodes>
        0 -1 119037 3.1165983527898788e-02</internalNodes>
      <leafValues>
        -5.2301832474768162e-03 1.</leafValues></_>
    <_>
      <internalNodes>
        0 -1 119037 3.1165983527898788e-02</internalNodes>
      <leafValues>
        4.0386367589235306e-02 -1.</leafValues></_>
    <_>
      <internalNodes>
        0 -1 119037 3.1165983527898788e-02</internalNodes>
      <leafValues>
        -4.0364474058151245e-02 1.</leafValues></_>
    <_>
      <internalNodes>
        0 -1 119037 3.1165983527898788e-02</internalNodes>
      <leafValues>
        4.0364507585763931e-02 -1.</leafValues></_>
    <_>
      <internalNodes>
        0 -1 119037 3.1165983527898788e-02</internalNodes>
      <leafValues>
        -4.0364507585763931e-02 1.</leafValues></_>
    <_>
      <internalNodes>
        0 -1 119037 3.1165983527898788e-02</internalNodes>
      <leafValues>
        4.0364507585763931e-02 -1.</leafValues></_>
    <_>
      <internalNodes>
        0 -1 119037 3.1165983527898788e-02</internalNodes>
      <leafValues>
        -4.0364507585763931e-02 1.</leafValues></_>
    <_>
      <internalNodes>
        0 -1 119037 3.1165983527898788e-02</internalNodes>
      <leafValues>
        4.0364507585763931e-02 -1.</leafValues></_>
    <_>
      <internalNodes>
        0 -1 119037 3.1165983527898788e-02</internalNodes>
      <leafValues>
        -4.0364507585763931e-02 1.</leafValues></_>
    <_>
      <internalNodes>
        0 -1 119037 3.1165983527898788e-02</internalNodes>
      <leafValues>
        4.0364507585763931e-02 -1.</leafValues></_>
    <_>
      <internalNodes>
        0 -1 119037 3.1165983527898788e-02</internalNodes>
      <leafValues>
        -4.0364507585763931e-02 1.</leafValues></_>
    <_>
      <internalNodes>
        0 -1 119037 3.1165983527898788e-02</internalNodes>
      <leafValues>
        4.0364507585763931e-02 -1.</leafValues></_>
    <_>
      <internalNodes>
        0 -1 119037 3.1165983527898788e-02</internalNodes>
      <leafValues>
        -4.0364507585763931e-02 1.</leafValues></_>
    <_>
      <internalNodes>
        0 -1 119037 3.1165983527898788e-02</internalNodes>
      <leafValues>
        4.0364507585763931e-02 -1.</leafValues></_>
    <_>
      <internalNodes>
        0 -1 119037 3.1165983527898788e-02</internalNodes>
      <leafValues>
        -4.0364507585763931e-02 1.</leafValues></_>
    <_>
      <internalNodes>
        0 -1 119037 3.1165983527898788e-02</internalNodes>
      <leafValues>
        4.0364507585763931e-02 -1.</leafValues></_>
    <_>
      <internalNodes>
        0 -1 119037 3.1165983527898788e-02</internalNodes>
      <leafValues>
        -4.0364507585763931e-02 1.</leafValues></_>
    <_>
      <internalNodes>
        0 -1 119037 3.1165983527898788e-02</internalNodes>
      <leafValues>
        4.0364507585763931e-02 -1.</leafValues></_>
    <_>
      <internalNodes>
        0 -1 119037 3.1165983527898788e-02</internalNodes>
      <leafValues>
        -4.0364507585763931e-02 1.</leafValues></_>
    <_>
      <internalNodes>
        0 -1 119037 3.1165983527898788e-02</internalNodes>
      <leafValues>
        4.0364507585763931e-02 -1.</leafValues></_>
    <_>
      <internalNodes>
        0 -1 119037 3.1165983527898788e-02</internalNodes>
      <leafValues>
        -4.0364507585763931e-02 1.</leafValues></_>
    <_>
      <internalNodes>
        0 -1 119037 3.1165983527898788e-02</internalNodes>
      <leafValues>
        4.0364507585763931e-02 -1.</leafValues></_>
    <_>
      <internalNodes>
        0 -1 119037 3.1165983527898788e-02</internalNodes>
      <leafValues>
        -4.0364507585763931e-02 1.</leafValues></_>
    <_>
      <internalNodes>
        0 -1 119037 3.1165983527898788e-02</internalNodes>
      <leafValues>
        4.0364507585763931e-02 -1.</leafValues></_>
    <_>
      <internalNodes>
        0 -1 119037 3.1165983527898788e-02</internalNodes>
      <leafValues>
        -4.0364507585763931e-02 1.</leafValues></_>
    <_>
      <internalNodes>
        0 -1 119037 3.1165983527898788e-02</internalNodes>
      <leafValues>
        4.0364507585763931e-02 -1.</leafValues></_>
    <_>
      <internalNodes>
        0 -1 119037 3.1165983527898788e-02</internalNodes>
      <leafValues>
        -4.0364507585763931e-02 1.</leafValues></_>
    <_>
      <internalNodes>
        0 -1 119037 3.1165983527898788e-02</internalNodes>
      <leafValues>
        4.0364507585763931e-02 -1.</leafValues></_>
    <_>
      <internalNodes>
        0 -1 119037 3.1165983527898788e-02</internalNodes>
      <leafValues>
        -4.0364507585763931e-02 1.</leafValues></_>
    <_>
      <internalNodes>
        0 -1 119037 3.1165983527898788e-02</internalNodes>
      <leafValues>
        4.0364507585763931e-02 -1.</leafValues></_>
    <_>
      <internalNodes>
        0 -1 119037 3.1165983527898788e-02</internalNodes>
      <leafValues>
        -4.0364507585763931e-02 1.</leafValues></_>
    <_>
      <internalNodes>
        0 -1 119037 3.1165983527898788e-02</internalNodes>
      <leafValues>
        4.0364507585763931e-02 -1.</leafValues></_>
    <_>
      <internalNodes>
        0 -1 119037 3.1165983527898788e-02</internalNodes>
      <leafValues>
        -4.0364507585763931e-02 1.</leafValues></_>
    <_>
      <internalNodes>
        0 -1 119037 3.1165983527898788e-02</internalNodes>
      <leafValues>
        4.0364507585763931e-02 -1.</leafValues></_>
    <_>
      <internalNodes>
        0 -1 119037 3.1165983527898788e-02</internalNodes>
      <leafValues>
        -4.0364507585763931e-02 1.</leafValues></_>
    <_>
      <internalNodes>
        0 -1 119037 3.1165983527898788e-02</internalNodes>
      <leafValues>
        4.0364507585763931e-02 -1.</leafValues></_>
    <_>
      <internalNodes>
        0 -1 119037 3.1165983527898788e-02</internalNodes>
      <leafValues>
        -4.0364507585763931e-02 1.</leafValues></_>
    <_>
      <internalNodes>
        0 -1 119037 3.1165983527898788e-02</internalNodes>
      <leafValues>
        4.0364507585763931e-02 -1.</leafValues></_>
    <_>
      <internalNodes>
        0 -1 119037 3.1165983527898788e-02</internalNodes>
      <leafValues>
        -4.0364507585763931e-02 1.</leafValues></_>
    <_>
      <internalNodes>
        0 -1 119037 3.1165983527898788e-02</internalNodes>
      <leafValues>
        4.0364507585763931e-02 -1.</leafValues></_>
    <_>
      <internalNodes>
        0 -1 119037 3.1165983527898788e-02</internalNodes>
      <leafValues>
        -4.0364507585763931e-02 1.</leafValues></_>
    <_>
      <internalNodes>
        0 -1 119037 3.1165983527898788e-02</internalNodes>
      <leafValues>
        4.0364507585763931e-02 -1.</leafValues></_>
    <_>
      <internalNodes>
        0 -1 119037 3.1165983527898788e-02</internalNodes>
      <leafValues>
        -4.0364507585763931e-02 1.</leafValues></_>
    <_>
      <internalNodes>
        0 -1 119037 3.1165983527898788e-02</internalNodes>
      <leafValues>
        4.0364507585763931e-02 -1.</leafValues></_>
    <_>
      <internalNodes>
        0 -1 119037 3.1165983527898788e-02</internalNodes>
      <leafValues>
        -4.0364507585763931e-02 1.</leafValues></_>
    <_>
      <internalNodes>
        0 -1 119037 3.1165983527898788e-02</internalNodes>
      <leafValues>
        4.0364507585763931e-02 -1.</leafValues></_>
    <_>
      <internalNodes>
        0 -1 119037 3.1165983527898788e-02</internalNodes>
      <leafValues>
        -4.0364507585763931e-02 1.</leafValues></_>
    <_>
      <internalNodes>
        0 -1 119037 3.1165983527898788e-02</internalNodes>
      <leafValues>
        4.0364507585763931e-02 -1.</leafValues></_>
    <_>
      <internalNodes>
        0 -1 119037 3.1165983527898788e-02</internalNodes>
      <leafValues>
        -4.0364507585763931e-02 1.</leafValues></_>
    <_>
      <internalNodes>
        0 -1 119037 3.1165983527898788e-02</internalNodes>
      <leafValues>
        4.0364507585763931e-02 -1.</leafValues></_>
    <_>
      <internalNodes>
        0 -1 119037 3.1165983527898788e-02</internalNodes>
      <leafValues>
        -4.0364507585763931e-02 1.</leafValues></_>
    <_>
      <internalNodes>
        0 -1 119037 3.1165983527898788e-02</internalNodes>
      <leafValues>
        4.0364507585763931e-02 -1.</leafValues></_>
    <_>
      <internalNodes>
        0 -1 119037 3.1165983527898788e-02</internalNodes>
      <leafValues>
        -4.0364507585763931e-02 1.</leafValues></_>
    <_>
      <internalNodes>
        0 -1 119037 3.1165983527898788e-02</internalNodes>
      <leafValues>
        4.0364507585763931e-02 -1.</leafValues></_>
    <_>
      <internalNodes>
        0 -1 119037 3.1165983527898788e-02</internalNodes>
      <leafValues>
        -4.0364507585763931e-02 1.</leafValues></_>
    <_>
      <internalNodes>
        0 -1 119037 3.1165983527898788e-02</internalNodes>
      <leafValues>
        4.0364507585763931e-02 -1.</leafValues></_>
    <_>
      <internalNodes>
        0 -1 119037 3.1165983527898788e-02</internalNodes>
      <leafValues>
        -4.0364507585763931e-02 1.</leafValues></_>
    <_>
      <internalNodes>
        0 -1 119037 3.1165983527898788e-02</internalNodes>
      <leafValues>
        4.0364507585763931e-02 -1.</leafValues></_>
    <_>
      <internalNodes>
        0 -1 119037 3.1165983527898788e-02</internalNodes>
      <leafValues>
        -4.0364507585763931e-02 1.</leafValues></_>
    <_>
      <internalNodes>
        0 -1 119037 3.1165983527898788e-02</internalNodes>
      <leafValues>
        4.0364507585763931e-02 -1.</leafValues></_>
    <_>
      <internalNodes>
        0 -1 119037 3.1165983527898788e-02</internalNodes>
      <leafValues>
        -4.0364507585763931e-02 1.</leafValues></_>
    <_>
      <internalNodes>
        0 -1 119037 3.1165983527898788e-02</internalNodes>
      <leafValues>
        4.0364507585763931e-02 -1.</leafValues></_>
    <_>
      <internalNodes>
        0 -1 119037 3.1165983527898788e-02</internalNodes>
      <leafValues>
        -4.0364507585763931e-02 1.</leafValues></_>
    <_>
      <internalNodes>
        0 -1 119037 3.1165983527898788e-02</internalNodes>
      <leafValues>
        4.0364507585763931e-02 -1.</leafValues></_>
    <_>
      <internalNodes>
        0 -1 119037 3.1165983527898788e-02</internalNodes>
      <leafValues>
        -4.0364507585763931e-02 1.</leafValues></_>
    <_>
      <internalNodes>
        0 -1 119037 3.1165983527898788e-02</internalNodes>
      <leafValues>
        4.0364507585763931e-02 -1.</leafValues></_>
    <_>
      <internalNodes>
        0 -1 119037 3.1165983527898788e-02</internalNodes>
      <leafValues>
        -4.0364507585763931e-02 1.</leafValues></_>
    <_>
      <internalNodes>
        0 -1 119037 3.1165983527898788e-02</internalNodes>
      <leafValues>
        4.0364507585763931e-02 -1.</leafValues></_>
    <_>
      <internalNodes>
        0 -1 119037 3.1165983527898788e-02</internalNodes>
      <leafValues>
        -4.0364507585763931e-02 1.</leafValues></_>
    <_>
      <internalNodes>
        0 -1 119037 3.1165983527898788e-02</internalNodes>
      <leafValues>
        4.0364507585763931e-02 -1.</leafValues></_>
    <_>
      <internalNodes>
        0 -1 119037 3.1165983527898788e-02</internalNodes>
      <leafValues>
        -4.0364507585763931e-02 1.</leafValues></_>
    <_>
      <internalNodes>
        0 -1 119037 3.1165983527898788e-02</internalNodes>
      <leafValues>
        4.0364507585763931e-02 -1.</leafValues></_>
    <_>
      <internalNodes>
        0 -1 119037 3.1165983527898788e-02</internalNodes>
      <leafValues>
        -4.0364507585763931e-02 1.</leafValues></_>
    <_>
      <internalNodes>
        0 -1 119037 3.1165983527898788e-02</internalNodes>
      <leafValues>
        4.0364507585763931e-02 -1.</leafValues></_>
    <_>
      <internalNodes>
        0 -1 119037 3.1165983527898788e-02</internalNodes>
      <leafValues>
        -4.0364507585763931e-02 1.</leafValues></_>
    <_>
      <internalNodes>
        0 -1 119037 3.1165983527898788e-02</internalNodes>
      <leafValues>
        4.0364507585763931e-02 -1.</leafValues></_>
    <_>
      <internalNodes>
        0 -1 119037 3.1165983527898788e-02</internalNodes>
      <leafValues>
        -4.0364507585763931e-02 1.</leafValues></_>
    <_>
      <internalNodes>
        0 -1 119037 3.1165983527898788e-02</internalNodes>
      <leafValues>
        4.0364507585763931e-02 -1.</leafValues></_>
    <_>
      <internalNodes>
        0 -1 119037 3.1165983527898788e-02</internalNodes>
      <leafValues>
        -4.0364507585763931e-02 1.</leafValues></_>
    <_>
      <internalNodes>
        0 -1 119037 3.1165983527898788e-02</internalNodes>
      <leafValues>
        4.0364507585763931e-02 -1.</leafValues></_>
    <_>
      <internalNodes>
        0 -1 119037 3.1165983527898788e-02</internalNodes>
      <leafValues>
        -4.0364507585763931e-02 1.</leafValues></_>
    <_>
      <internalNodes>
        0 -1 119037 3.1165983527898788e-02</internalNodes>
      <leafValues>
        4.0364507585763931e-02 -1.</leafValues></_>
    <_>
      <internalNodes>
        0 -1 119037 3.1165983527898788e-02</internalNodes>
      <leafValues>
        -4.0364507585763931e-02 1.</leafValues></_>
    <_>
      <internalNodes>
        0 -1 119037 3.1165983527898788e-02</internalNodes>
      <leafValues>
        4.0364507585763931e-02 -1.</leafValues></_>
    <_>
      <internalNodes>
        0 -1 119037 3.1165983527898788e-02</internalNodes>
      <leafValues>
        -4.0364507585763931e-02 1.</leafValues></_>
    <_>
      <internalNodes>
        0 -1 119037 3.1165983527898788e-02</internalNodes>
      <leafValues>
        4.0364507585763931e-02 -1.</leafValues></_>
    <_>
      <internalNodes>
        0 -1 119037 3.1165983527898788e-02</internalNodes>
      <leafValues>
        -4.0364507585763931e-02 1.</leafValues></_>
    <_>
      <internalNodes>
        0 -1 119037 3.1165983527898788e-02</internalNodes>
      <leafValues>
        4.0364507585763931e-02 -1.</leafValues></_>
    <_>
      <internalNodes>
        0 -1 119037 3.1165983527898788e-02</internalNodes>
      <leafValues>
        -4.0364507585763931e-02 1.</leafValues></_>
    <_>
      <internalNodes>
        0 -1 119037 3.1165983527898788e-02</internalNodes>
      <leafValues>
        4.0364507585763931e-02 -1.</leafValues></_>
    <_>
      <internalNodes>
        0 -1 119037 3.1165983527898788e-02</internalNodes>
      <leafValues>
        -4.0364507585763931e-02 1.</leafValues></_>
    <_>
      <internalNodes>
        0 -1 119037 3.1165983527898788e-02</internalNodes>
      <leafValues>
        4.0364507585763931e-02 -1.</leafValues></_>
    <_>
      <internalNodes>
        0 -1 119037 3.1165983527898788e-02</internalNodes>
      <leafValues>
        -4.0364507585763931e-02 1.</leafValues></_>
    <_>
      <internalNodes>
        0 -1 119037 3.1165983527898788e-02</internalNodes>
      <leafValues>
        4.0364507585763931e-02 -1.</leafValues></_>
    <_>
      <internalNodes>
        0 -1 119037 3.1165983527898788e-02</internalNodes>
      <leafValues>
        -4.0364507585763931e-02 1.</leafValues></_>
    <_>
      <internalNodes>
        0 -1 119037 3.1165983527898788e-02</internalNodes>
      <leafValues>
        4.0364507585763931e-02 -1.</leafValues></_>
    <_>
      <internalNodes>
        0 -1 119037 3.1165983527898788e-02</internalNodes>
      <leafValues>
        -4.0364507585763931e-02 1.</leafValues></_></weakClassifiers></stage17>
</opencv_storage>
